<?xml version="1.0" encoding="US-ASCII"?>
<!--
Bayesian network in XMLBIF v0.3 (BayesNet Interchange Format)
Produced by BNJ 3.0 (http://bndev.sourceforge.net/
-->
		<!-- DTD for the XMLBIF 0.3 format -->
<!DOCTYPE BIF [
<!ELEMENT BIF ( NETWORK )*>
<!ATTLIST BIF VERSION CDATA #REQUIRED>
<!ELEMENT NETWORK ( NAME, ( PROPERTY | VARIABLE | DEFINITION )* )>
<!ELEMENT NAME (#PCDATA)>
<!ELEMENT VARIABLE ( NAME, ( OUTCOME |  PROPERTY )* ) >
	<!ATTLIST VARIABLE TYPE (nature|decision|utility) "nature">
<!ELEMENT OUTCOME (#PCDATA)>
<!ELEMENT DEFINITION ( FOR | GIVEN | TABLE | PROPERTY )* >
<!ELEMENT FOR (#PCDATA)>
<!ELEMENT GIVEN (#PCDATA)>
<!ELEMENT TABLE (#PCDATA)>
<!ELEMENT PROPERTY (#PCDATA)>
]>
<BIF VERSION="0.3">
<NETWORK>
<NAME>bn</NAME>
	<VARIABLE TYPE="nature">
		<NAME>intelligence(s)</NAME>
		<OUTCOME>Smart</OUTCOME>
		<OUTCOME>Weak</OUTCOME>
		<OUTCOME>Average</OUTCOME>
		<PROPERTY>position = (243,66)</PROPERTY>
	</VARIABLE>
	<VARIABLE TYPE="nature">
		<NAME>difficulty(c)</NAME>
		<OUTCOME>Hard</OUTCOME>
		<OUTCOME>Easy</OUTCOME>
		<PROPERTY>position = (321,68)</PROPERTY>
	</VARIABLE>
	<VARIABLE TYPE="nature">
		<NAME>takes(s,c)</NAME>
		<OUTCOME>True</OUTCOME>
		<OUTCOME>False</OUTCOME>
		<PROPERTY>position = (173,78)</PROPERTY>
	</VARIABLE>
	<VARIABLE TYPE="nature">
		<NAME>teaches(p1,c)</NAME>
		<OUTCOME>True</OUTCOME>
		<OUTCOME>False</OUTCOME>
		<PROPERTY>position = (515,82)</PROPERTY>
	</VARIABLE>
	<VARIABLE TYPE="nature">
		<NAME>advises(p2,s)</NAME>
		<OUTCOME>True</OUTCOME>
		<OUTCOME>False</OUTCOME>
		<PROPERTY>position = (652,82)</PROPERTY>
	</VARIABLE>
	<VARIABLE TYPE="nature">
		<NAME>likes(p1,p2)</NAME>
		<OUTCOME>True</OUTCOME>
		<OUTCOME>False</OUTCOME>
		<PROPERTY>position = (768,86)</PROPERTY>
	</VARIABLE>
	<VARIABLE TYPE="nature">
		<NAME>OR:teacherOfLikesAdvisorOf(c,s)|p1,p2</NAME>
		<OUTCOME>True</OUTCOME>
		<OUTCOME>False</OUTCOME>
		<PROPERTY>position = (417,129)</PROPERTY>
	</VARIABLE>
	<VARIABLE TYPE="nature">
		<NAME>grade(s,c)</NAME>
		<OUTCOME>D</OUTCOME>
		<OUTCOME>F</OUTCOME>
		<OUTCOME>A</OUTCOME>
		<OUTCOME>B</OUTCOME>
		<OUTCOME>C</OUTCOME>
		<OUTCOME>None</OUTCOME>
		<PROPERTY>position = (231,127)</PROPERTY>
	</VARIABLE>
	<VARIABLE TYPE="nature">
		<NAME>takesSimilarCourse(s,c)</NAME>
		<OUTCOME>True</OUTCOME>
		<OUTCOME>False</OUTCOME>
		<PROPERTY>position = (111,101)</PROPERTY>
	</VARIABLE>
	<VARIABLE TYPE="nature">
		<NAME>similarRST(c,c2)</NAME>
		<OUTCOME>True</OUTCOME>
		<OUTCOME>False</OUTCOME>
		<PROPERTY>position = (70,22)</PROPERTY>
	</VARIABLE>
	<VARIABLE TYPE="nature">
		<NAME>similar(c1,c2)</NAME>
		<OUTCOME>True</OUTCOME>
		<OUTCOME>False</OUTCOME>
		<PROPERTY>position = (126,-4)</PROPERTY>
	</VARIABLE>
	<DEFINITION>
		<FOR>intelligence(s)</FOR>
		<TABLE>0.2125 0.1825 0.605 		</TABLE>	</DEFINITION>	<DEFINITION>
		<FOR>difficulty(c)</FOR>
		<TABLE>0.3125 0.6875 		</TABLE>	</DEFINITION>	<DEFINITION>
		<FOR>takes(s,c)</FOR>
		<TABLE>0.03482421875 0.96517578125 		</TABLE>	</DEFINITION>	<DEFINITION>
		<FOR>teaches(p1,c)</FOR>
		<TABLE>0.01694915254237288 0.9830508474576272 		</TABLE>	</DEFINITION>	<DEFINITION>
		<FOR>advises(p2,s)</FOR>
		<TABLE>0.007701612903225807 0.9922983870967742 		</TABLE>	</DEFINITION>	<DEFINITION>
		<FOR>likes(p1,p2)</FOR>
		<TABLE>0.38065816857440166 0.6193418314255983 		</TABLE>	</DEFINITION>	<DEFINITION>
		<FOR>OR:teacherOfLikesAdvisorOf(c,s)|p1,p2</FOR>
		<GIVEN>teaches(p1,c)</GIVEN>
		<GIVEN>advises(p2,s)</GIVEN>
		<GIVEN>likes(p1,p2)</GIVEN>
		<TABLE>1.0 0.0 0.0 1.0 0.0 1.0 0.0 1.0 0.0 1.0 0.0 1.0 0.0 1.0 0.0 1.0 		</TABLE>	</DEFINITION>	<DEFINITION>
		<FOR>grade(s,c)</FOR>
		<GIVEN>intelligence(s)</GIVEN>
		<GIVEN>difficulty(c)</GIVEN>
		<GIVEN>takes(s,c)</GIVEN>
		<GIVEN>OR:teacherOfLikesAdvisorOf(c,s)|p1,p2</GIVEN>
		<GIVEN>takesSimilarCourse(s,c)</GIVEN>
		<TABLE>0.0 0.5 0.0 0.5 0.0 0.0 0.16666666666666666 0.027777777777777776 0.4722222222222222 0.1388888888888889 0.19444444444444445 0.0 0.09090909090909091 0.2727272727272727 0.09090909090909091 0.09090909090909091 0.45454545454545453 0.0 0.25675675675675674 0.12162162162162163 0.14864864864864866 0.2972972972972973 0.17567567567567569 0.0 0.16666666666666666 0.16666666666666666 0.16666666666666666 0.16666666666666666 0.16666666666666666 0.16666666666666666 0.0 0.0 0.0 0.0 0.0 1.0 0.16666666666666666 0.16666666666666666 0.16666666666666666 0.16666666666666666 0.16666666666666666 0.16666666666666666 0.0 0.0 0.0 0.0 0.0 1.0 0.14285714285714285 0.0 0.21428571428571427 0.2857142857142857 0.35714285714285715 0.0 0.16393442622950818 0.16393442622950818 0.21311475409836064 0.32786885245901637 0.13114754098360656 0.0 0.13333333333333333 0.03333333333333333 0.26666666666666666 0.43333333333333335 0.13333333333333333 0.0 0.09090909090909091 0.11363636363636363 0.2878787878787879 0.30303030303030304 0.20454545454545456 0.0 0.16666666666666666 0.16666666666666666 0.16666666666666666 0.16666666666666666 0.16666666666666666 0.16666666666666666 0.0 0.0 0.0 0.0 0.0 1.0 0.16666666666666666 0.16666666666666666 0.16666666666666666 0.16666666666666666 0.16666666666666666 0.16666666666666666 0.0 0.0 0.0 0.0 0.0 1.0 0.0 0.0 0.0 0.0 1.0 0.0 0.14705882352941177 0.058823529411764705 0.23529411764705882 0.29411764705882354 0.2647058823529412 0.0 0.15384615384615385 0.07692307692307693 0.0 0.46153846153846156 0.3076923076923077 0.0 0.24561403508771928 0.12280701754385964 0.0 0.3508771929824561 0.2807017543859649 0.0 0.16666666666666666 0.16666666666666666 0.16666666666666666 0.16666666666666666 0.16666666666666666 0.16666666666666666 0.0 0.0 0.0 0.0 0.0 1.0 0.16666666666666666 0.16666666666666666 0.16666666666666666 0.16666666666666666 0.16666666666666666 0.16666666666666666 0.0 0.0 0.0 0.0 0.0 1.0 0.0 0.0 0.6 0.4 0.0 0.0 0.11320754716981132 0.07547169811320754 0.1509433962264151 0.49056603773584906 0.16981132075471697 0.0 0.09375 0.09375 0.21875 0.4375 0.15625 0.0 0.10077519379844961 0.11627906976744186 0.10852713178294573 0.40310077519379844 0.2713178294573643 0.0 0.16666666666666666 0.16666666666666666 0.16666666666666666 0.16666666666666666 0.16666666666666666 0.16666666666666666 0.0 0.0 0.0 0.0 0.0 1.0 0.16666666666666666 0.16666666666666666 0.16666666666666666 0.16666666666666666 0.16666666666666666 0.16666666666666666 0.0 0.0 0.0 0.0 0.0 1.0 0.05555555555555555 0.1111111111111111 0.4444444444444444 0.2222222222222222 0.16666666666666666 0.0 0.21518987341772153 0.08860759493670886 0.10126582278481013 0.34177215189873417 0.25316455696202533 0.0 0.1111111111111111 0.05555555555555555 0.2222222222222222 0.3611111111111111 0.25 0.0 0.185 0.11 0.04 0.445 0.22 0.0 0.16666666666666666 0.16666666666666666 0.16666666666666666 0.16666666666666666 0.16666666666666666 0.16666666666666666 0.0 0.0 0.0 0.0 0.0 1.0 0.16666666666666666 0.16666666666666666 0.16666666666666666 0.16666666666666666 0.16666666666666666 0.16666666666666666 0.0 0.0 0.0 0.0 0.0 1.0 0.05555555555555555 0.05555555555555555 0.19444444444444445 0.4166666666666667 0.2777777777777778 0.0 0.13122171945701358 0.04524886877828054 0.22624434389140272 0.45248868778280543 0.14479638009049775 0.0 0.11904761904761904 0.05952380952380952 0.21428571428571427 0.38095238095238093 0.2261904761904762 0.0 0.09905660377358491 0.07311320754716981 0.13679245283018868 0.49764150943396224 0.19339622641509435 0.0 0.16666666666666666 0.16666666666666666 0.16666666666666666 0.16666666666666666 0.16666666666666666 0.16666666666666666 0.0 0.0 0.0 0.0 0.0 1.0 0.16666666666666666 0.16666666666666666 0.16666666666666666 0.16666666666666666 0.16666666666666666 0.16666666666666666 0.0 0.0 0.0 0.0 0.0 1.0 		</TABLE>	</DEFINITION>	<DEFINITION>
		<FOR>takesSimilarCourse(s,c)</FOR>
		<TABLE>0.00552734375 0.99447265625 		</TABLE>	</DEFINITION>	<DEFINITION>
		<FOR>similarRST(c,c2)</FOR>
		<TABLE>0.5 0.5 		</TABLE>	</DEFINITION>	<DEFINITION>
		<FOR>similar(c1,c2)</FOR>
		<TABLE>0.039794921875 0.960205078125 		</TABLE>	</DEFINITION></NETWORK>
</BIF>
